<?xml version="1.0"?>
<opencv_storage>
<cascade>
  <stageType>BOOST</stageType>
  <featureType>HAAR</featureType>
  <height>24</height>
  <width>44</width>
  <stageParams>
    <boostType>GAB</boostType>
    <minHitRate>9.9500000476837158e-01</minHitRate>
    <maxFalseAlarm>5.0000000000000000e-01</maxFalseAlarm>
    <weightTrimRate>9.4999998807907104e-01</weightTrimRate>
    <maxDepth>1</maxDepth>
    <maxWeakCount>100</maxWeakCount></stageParams>
  <featureParams>
    <maxCatCount>0</maxCatCount>
    <featSize>1</featSize>
    <mode>BASIC</mode></featureParams>
  <stageNum>19</stageNum>
  <stages>
    <!-- stage 0 -->
    <_>
      <maxWeakCount>3</maxWeakCount>
      <stageThreshold>-9.5992583036422729e-01</stageThreshold>
      <weakClassifiers>
        <_>
          <internalNodes>
            0 -1 58 5.2073050290346146e-02</internalNodes>
          <leafValues>
            -8.8514852523803711e-01 7.6331359148025513e-01</leafValues></_>
        <_>
          <internalNodes>
            0 -1 121 3.3575683832168579e-02</internalNodes>
          <leafValues>
            -7.6608645915985107e-01 7.2417843341827393e-01</leafValues></_>
        <_>
          <internalNodes>
            0 -1 142 6.2839195132255554e-02</internalNodes>
          <leafValues>
            -5.6766712665557861e-01 6.9130915403366089e-01</leafValues></_></weakClassifiers></_>
    <!-- stage 1 -->
    <_>
      <maxWeakCount>6</maxWeakCount>
      <stageThreshold>-2.2206580638885498e+00</stageThreshold>
      <weakClassifiers>
        <_>
          <internalNodes>
            0 -1 46 1.2557768821716309e-01</internalNodes>
          <leafValues>
            -7.1185839176177979e-01 7.7030813694000244e-01</leafValues></_>
        <_>
          <internalNodes>
            0 -1 132 7.3654077947139740e-02</internalNodes>
          <leafValues>
            -4.7740250825881958e-01 8.3164787292480469e-01</leafValues></_>
        <_>
          <internalNodes>
            0 -1 158 -4.7544875997118652e-05</internalNodes>
          <leafValues>
            5.8935427665710449e-01 -5.6412255764007568e-01</leafValues></_>
        <_>
          <internalNodes>
            0 -1 71 -4.4285625335760415e-05</internalNodes>
          <leafValues>
            4.8790743947029114e-01 -6.1752218008041382e-01</leafValues></_>
        <_>
          <internalNodes>
            0 -1 21 -1.5623904764652252e-02</internalNodes>
          <leafValues>
            5.4199427366256714e-01 -4.9491345882415771e-01</leafValues></_>
        <_>
          <internalNodes>
            0 -1 138 5.2016352128703147e-05</internalNodes>
          <leafValues>
            -5.0831586122512817e-01 4.9855303764343262e-01</leafValues></_></weakClassifiers></_>
    <!-- stage 2 -->
    <_>
      <maxWeakCount>8</maxWeakCount>
      <stageThreshold>-1.6790968179702759e+00</stageThreshold>
      <weakClassifiers>
        <_>
          <internalNodes>
            0 -1 47 9.6165411174297333e-02</internalNodes>
          <leafValues>
            -7.2304111719131470e-01 4.1935482621192932e-01</leafValues></_>
        <_>
          <internalNodes>
            0 -1 181 5.4618554713670164e-05</internalNodes>
          <leafValues>
            -7.3109591007232666e-01 3.8252115249633789e-01</leafValues></_>
        <_>
          <internalNodes>
            0 -1 125 7.4765314348042011e-03</internalNodes>
          <leafValues>
            -8.2699608802795410e-01 2.4900944530963898e-01</leafValues></_>
        <_>
          <internalNodes>
            0 -1 101 4.9802292778622359e-05</internalNodes>
          <leafValues>
            -4.6310251951217651e-01 4.6192464232444763e-01</leafValues></_>
        <_>
          <internalNodes>
            0 -1 9 -1.9144181162118912e-02</internalNodes>
          <leafValues>
            7.1716189384460449e-01 -2.7510216832160950e-01</leafValues></_>
        <_>
          <internalNodes>
            0 -1 156 -5.3486950491787866e-05</internalNodes>
          <leafValues>
            4.8244836926460266e-01 -4.5010098814964294e-01</leafValues></_>
        <_>
          <internalNodes>
            0 -1 20 5.7436634961050004e-05</internalNodes>
          <leafValues>
            -4.0065649151802063e-01 4.5131108164787292e-01</leafValues></_>
        <_>
          <internalNodes>
            0 -1 76 -2.7420148253440857e-03</internalNodes>
          <leafValues>
            3.4676682949066162e-01 -5.0198644399642944e-01</leafValues></_></weakClassifiers></_>
    <!-- stage 3 -->
    <_>
      <maxWeakCount>8</maxWeakCount>
      <stageThreshold>-1.5122469663619995e+00</stageThreshold>
      <weakClassifiers>
        <_>
          <internalNodes>
            0 -1 103 6.8798378109931946e-02</internalNodes>
          <leafValues>
            -7.5470083951950073e-01 2.5437864661216736e-01</leafValues></_>
        <_>
          <internalNodes>
            0 -1 187 5.2745228458661586e-05</internalNodes>
          <leafValues>
            -6.3709861040115356e-01 3.1632336974143982e-01</leafValues></_>
        <_>
          <internalNodes>
            0 -1 128 -4.5547283662017435e-05</internalNodes>
          <leafValues>
            2.4738988280296326e-01 -7.2210258245468140e-01</leafValues></_>
        <_>
          <internalNodes>
            0 -1 174 3.3480271697044373e-02</internalNodes>
          <leafValues>
            -3.5508966445922852e-01 5.9888786077499390e-01</leafValues></_>
        <_>
          <internalNodes>
            0 -1 22 -3.7030361592769623e-02</internalNodes>
          <leafValues>
            4.3004459142684937e-01 -5.6571298837661743e-01</leafValues></_>
        <_>
          <internalNodes>
            0 -1 149 5.0067377742379904e-05</internalNodes>
          <leafValues>
            -4.5123541355133057e-01 4.0599068999290466e-01</leafValues></_>
        <_>
          <internalNodes>
            0 -1 169 4.4211468775756657e-05</internalNodes>
          <leafValues>
            -4.3203058838844299e-01 4.7552174329757690e-01</leafValues></_>
        <_>
          <internalNodes>
            0 -1 34 -9.2501919716596603e-03</internalNodes>
          <leafValues>
            5.5274009704589844e-01 -3.2012936472892761e-01</leafValues></_></weakClassifiers></_>
    <!-- stage 4 -->
    <_>
      <maxWeakCount>8</maxWeakCount>
      <stageThreshold>-1.8425948619842529e+00</stageThreshold>
      <weakClassifiers>
        <_>
          <internalNodes>
            0 -1 59 8.4478572010993958e-02</internalNodes>
          <leafValues>
            -8.4202373027801514e-01 1.0611735284328461e-01</leafValues></_>
        <_>
          <internalNodes>
            0 -1 182 5.3364128689281642e-05</internalNodes>
          <leafValues>
            -7.2002953290939331e-01 3.1040847301483154e-01</leafValues></_>
        <_>
          <internalNodes>
            0 -1 79 5.1104114390909672e-05</internalNodes>
          <leafValues>
            -4.9861481785774231e-01 3.3930468559265137e-01</leafValues></_>
        <_>
          <internalNodes>
            0 -1 52 -5.7806530094239861e-05</internalNodes>
          <leafValues>
            3.4415584802627563e-01 -5.2137374877929688e-01</leafValues></_>
        <_>
          <internalNodes>
            0 -1 136 -1.0097512602806091e-01</internalNodes>
          <leafValues>
            7.8198385238647461e-01 -2.2317816317081451e-01</leafValues></_>
        <_>
          <internalNodes>
            0 -1 157 4.3459775042720139e-05</internalNodes>
          <leafValues>
            -4.8196485638618469e-01 3.6417627334594727e-01</leafValues></_>
        <_>
          <internalNodes>
            0 -1 29 -3.1460188329219818e-02</internalNodes>
          <leafValues>
            7.6306700706481934e-01 -2.0209285616874695e-01</leafValues></_>
        <_>
          <internalNodes>
            0 -1 43 3.5097390413284302e-01</internalNodes>
          <leafValues>
            -1.8400667607784271e-01 8.3805000782012939e-01</leafValues></_></weakClassifiers></_>
    <!-- stage 5 -->
    <_>
      <maxWeakCount>11</maxWeakCount>
      <stageThreshold>-1.5671279430389404e+00</stageThreshold>
      <weakClassifiers>
        <_>
          <internalNodes>
            0 -1 62 1.0328958928585052e-01</internalNodes>
          <leafValues>
            -6.3312751054763794e-01 3.5877862572669983e-01</leafValues></_>
        <_>
          <internalNodes>
            0 -1 3 -3.4611083567142487e-02</internalNodes>
          <leafValues>
            5.1047825813293457e-01 -4.3978241086006165e-01</leafValues></_>
        <_>
          <internalNodes>
            0 -1 148 -5.3779251175001264e-05</internalNodes>
          <leafValues>
            3.5805383324623108e-01 -6.0789942741394043e-01</leafValues></_>
        <_>
          <internalNodes>
            0 -1 173 2.5683516636490822e-02</internalNodes>
          <leafValues>
            -3.1595751643180847e-01 5.9938400983810425e-01</leafValues></_>
        <_>
          <internalNodes>
            0 -1 16 9.2835545539855957e-02</internalNodes>
          <leafValues>
            -5.3426277637481689e-01 2.9701384902000427e-01</leafValues></_>
        <_>
          <internalNodes>
            0 -1 70 -9.1348234564065933e-03</internalNodes>
          <leafValues>
            3.3411207795143127e-01 -4.4992956519126892e-01</leafValues></_>
        <_>
          <internalNodes>
            0 -1 99 6.3874088227748871e-02</internalNodes>
          <leafValues>
            -3.9618441462516785e-01 3.6728972196578979e-01</leafValues></_>
        <_>
          <internalNodes>
            0 -1 175 5.1378548145294189e-02</internalNodes>
          <leafValues>
            -2.7751350402832031e-01 6.0264021158218384e-01</leafValues></_>
        <_>
          <internalNodes>
            0 -1 196 1.1606790358200669e-03</internalNodes>
          <leafValues>
            2.1478767693042755e-01 -7.5983369350433350e-01</leafValues></_>
        <_>
          <internalNodes>
            0 -1 119 -5.1017901569139212e-05</internalNodes>
          <leafValues>
            3.9631533622741699e-01 -3.4238511323928833e-01</leafValues></_>
        <_>
          <internalNodes>
            0 -1 94 8.0622434616088867e-02</internalNodes>
          <leafValues>
            -1.6366577148437500e-01 8.3125454187393188e-01</leafValues></_></weakClassifiers></_>
    <!-- stage 6 -->
    <_>
      <maxWeakCount>7</maxWeakCount>
      <stageThreshold>-1.7320384979248047e+00</stageThreshold>
      <weakClassifiers>
        <_>
          <internalNodes>
            0 -1 135 5.0779963203240186e-05</internalNodes>
          <leafValues>
            -7.9978239536285400e-01 5.2910051308572292e-03</leafValues></_>
        <_>
          <internalNodes>
            0 -1 72 4.7811707190703601e-05</internalNodes>
          <leafValues>
            -6.9958728551864624e-01 2.9963064193725586e-01</leafValues></_>
        <_>
          <internalNodes>
            0 -1 33 -4.4748732761945575e-05</internalNodes>
          <leafValues>
            2.9530897736549377e-01 -5.9269845485687256e-01</leafValues></_>
        <_>
          <internalNodes>
            0 -1 192 5.6530458095949143e-05</internalNodes>
          <leafValues>
            -5.0800067186355591e-01 3.6985209584236145e-01</leafValues></_>
        <_>
          <internalNodes>
            0 -1 105 1.6320079565048218e-01</internalNodes>
          <leafValues>
            -2.8358986973762512e-01 6.7770516872406006e-01</leafValues></_>
        <_>
          <internalNodes>
            0 -1 44 2.7801674604415894e-01</internalNodes>
          <leafValues>
            -2.8394877910614014e-01 8.0184108018875122e-01</leafValues></_>
        <_>
          <internalNodes>
            0 -1 147 2.3191427317215130e-05</internalNodes>
          <leafValues>
            -4.5165640115737915e-01 3.7836056947708130e-01</leafValues></_></weakClassifiers></_>
    <!-- stage 7 -->
    <_>
      <maxWeakCount>9</maxWeakCount>
      <stageThreshold>-1.7107242345809937e+00</stageThreshold>
      <weakClassifiers>
        <_>
          <internalNodes>
            0 -1 118 8.9077860116958618e-02</internalNodes>
          <leafValues>
            -6.2359356880187988e-01 6.0726070404052734e-01</leafValues></_>
        <_>
          <internalNodes>
            0 -1 65 -5.2237570344004780e-05</internalNodes>
          <leafValues>
            2.8772151470184326e-01 -7.4705862998962402e-01</leafValues></_>
        <_>
          <internalNodes>
            0 -1 86 2.2324116528034210e-01</internalNodes>
          <leafValues>
            -2.8083562850952148e-01 7.3699456453323364e-01</leafValues></_>
        <_>
          <internalNodes>
            0 -1 64 5.3279236453818157e-05</internalNodes>
          <leafValues>
            -3.9912378787994385e-01 4.4155952334403992e-01</leafValues></_>
        <_>
          <internalNodes>
            0 -1 80 6.1001093854429200e-05</internalNodes>
          <leafValues>
            -4.6337050199508667e-01 3.7513017654418945e-01</leafValues></_>
        <_>
          <internalNodes>
            0 -1 191 -5.0811649998649955e-05</internalNodes>
          <leafValues>
            3.5166785120964050e-01 -4.9488222599029541e-01</leafValues></_>
        <_>
          <internalNodes>
            0 -1 205 -5.5244658142328262e-05</internalNodes>
          <leafValues>
            4.2547366023063660e-01 -3.3724325895309448e-01</leafValues></_>
        <_>
          <internalNodes>
            0 -1 141 7.4923276901245117e-02</internalNodes>
          <leafValues>
            -3.5821694135665894e-01 4.3479278683662415e-01</leafValues></_>
        <_>
          <internalNodes>
            0 -1 111 7.0484937168657780e-03</internalNodes>
          <leafValues>
            -4.9579250812530518e-01 3.0854961276054382e-01</leafValues></_></weakClassifiers></_>
    <!-- stage 8 -->
    <_>
      <maxWeakCount>11</maxWeakCount>
      <stageThreshold>-1.6895854473114014e+00</stageThreshold>
      <weakClassifiers>
        <_>
          <internalNodes>
            0 -1 112 7.2962358593940735e-02</internalNodes>
          <leafValues>
            -7.2484791278839111e-01 6.2767475843429565e-02</leafValues></_>
        <_>
          <internalNodes>
            0 -1 67 4.2286302894353867e-02</internalNodes>
          <leafValues>
            -5.4825061559677124e-01 2.6324421167373657e-01</leafValues></_>
        <_>
          <internalNodes>
            0 -1 161 7.1271128952503204e-02</internalNodes>
          <leafValues>
            -3.3801600337028503e-01 5.0265800952911377e-01</leafValues></_>
        <_>
          <internalNodes>
            0 -1 95 2.2303154692053795e-03</internalNodes>
          <leafValues>
            -4.3086576461791992e-01 3.4564524888992310e-01</leafValues></_>
        <_>
          <internalNodes>
            0 -1 168 -9.4487919704988599e-04</internalNodes>
          <leafValues>
            -7.1339505910873413e-01 2.1850728988647461e-01</leafValues></_>
        <_>
          <internalNodes>
            0 -1 78 5.6035678426269442e-05</internalNodes>
          <leafValues>
            -3.7320140004158020e-01 3.4396684169769287e-01</leafValues></_>
        <_>
          <internalNodes>
            0 -1 32 6.0663474723696709e-03</internalNodes>
          <leafValues>
            1.8056210875511169e-01 -7.3495906591415405e-01</leafValues></_>
        <_>
          <internalNodes>
            0 -1 176 -5.8363824791740626e-05</internalNodes>
          <leafValues>
            3.6699193716049194e-01 -3.0621665716171265e-01</leafValues></_>
        <_>
          <internalNodes>
            0 -1 109 2.7564987540245056e-03</internalNodes>
          <leafValues>
            1.0982114821672440e-01 -9.4317203760147095e-01</leafValues></_>
        <_>
          <internalNodes>
            0 -1 106 -7.9780574887990952e-03</internalNodes>
          <leafValues>
            -9.3233913183212280e-01 8.6691804230213165e-02</leafValues></_>
        <_>
          <internalNodes>
            0 -1 69 2.8628410771489143e-02</internalNodes>
          <leafValues>
            -2.1237470209598541e-01 6.0450232028961182e-01</leafValues></_></weakClassifiers></_>
    <!-- stage 9 -->
    <_>
      <maxWeakCount>10</maxWeakCount>
      <stageThreshold>-1.6299966573715210e+00</stageThreshold>
      <weakClassifiers>
        <_>
          <internalNodes>
            0 -1 35 -9.0853050351142883e-03</internalNodes>
          <leafValues>
            4.6518105268478394e-01 -6.3629919290542603e-01</leafValues></_>
        <_>
          <internalNodes>
            0 -1 124 -2.1549344062805176e-02</internalNodes>
          <leafValues>
            4.2929893732070923e-01 -4.6939599514007568e-01</leafValues></_>
        <_>
          <internalNodes>
            0 -1 91 1.4723786152899265e-03</internalNodes>
          <leafValues>
            -3.8304358720779419e-01 4.2118000984191895e-01</leafValues></_>
        <_>
          <internalNodes>
            0 -1 24 2.1097813732922077e-03</internalNodes>
          <leafValues>
            -4.9551379680633545e-01 3.0235052108764648e-01</leafValues></_>
        <_>
          <internalNodes>
            0 -1 92 3.6687567830085754e-02</internalNodes>
          <leafValues>
            -4.2214381694793701e-01 3.5748162865638733e-01</leafValues></_>
        <_>
          <internalNodes>
            0 -1 1 -3.4413868188858032e-01</internalNodes>
          <leafValues>
            5.8196800947189331e-01 -2.4649401009082794e-01</leafValues></_>
        <_>
          <internalNodes>
            0 -1 166 -5.2070805395487696e-05</internalNodes>
          <leafValues>
            2.5814634561538696e-01 -5.3396123647689819e-01</leafValues></_>
        <_>
          <internalNodes>
            0 -1 152 -4.2017668485641479e-02</internalNodes>
          <leafValues>
            7.4319750070571899e-01 -1.9190375506877899e-01</leafValues></_>
        <_>
          <internalNodes>
            0 -1 195 -1.0874487459659576e-02</internalNodes>
          <leafValues>
            6.4292091131210327e-01 -2.8422302007675171e-01</leafValues></_>
        <_>
          <internalNodes>
            0 -1 36 -1.3323812745511532e-02</internalNodes>
          <leafValues>
            4.3089374899864197e-01 -2.5773906707763672e-01</leafValues></_></weakClassifiers></_>
    <!-- stage 10 -->
    <_>
      <maxWeakCount>11</maxWeakCount>
      <stageThreshold>-1.3866786956787109e+00</stageThreshold>
      <weakClassifiers>
        <_>
          <internalNodes>
            0 -1 165 1.6245678067207336e-02</internalNodes>
          <leafValues>
            -7.4593496322631836e-01 4.4557605870068073e-03</leafValues></_>
        <_>
          <internalNodes>
            0 -1 48 7.2117418050765991e-02</internalNodes>
          <leafValues>
            -6.5836304426193237e-01 1.6359348595142365e-01</leafValues></_>
        <_>
          <internalNodes>
            0 -1 189 6.4339055679738522e-03</internalNodes>
          <leafValues>
            -3.4620720148086548e-01 4.2703396081924438e-01</leafValues></_>
        <_>
          <internalNodes>
            0 -1 104 -4.0627652779221535e-03</internalNodes>
          <leafValues>
            2.8117823600769043e-01 -4.9388462305068970e-01</leafValues></_>
        <_>
          <internalNodes>
            0 -1 85 -1.7486434429883957e-02</internalNodes>
          <leafValues>
            -7.4024653434753418e-01 1.5961341559886932e-01</leafValues></_>
        <_>
          <internalNodes>
            0 -1 208 2.3218262940645218e-03</internalNodes>
          <leafValues>
            1.1496586352586746e-01 -8.6546117067337036e-01</leafValues></_>
        <_>
          <internalNodes>
            0 -1 6 -4.1402064263820648e-02</internalNodes>
          <leafValues>
            4.5697575807571411e-01 -2.4281395971775055e-01</leafValues></_>
        <_>
          <internalNodes>
            0 -1 115 -2.0424947142601013e-03</internalNodes>
          <leafValues>
            2.6352551579475403e-01 -5.0478768348693848e-01</leafValues></_>
        <_>
          <internalNodes>
            0 -1 74 -9.3617179663851857e-04</internalNodes>
          <leafValues>
            1.9617989659309387e-01 -5.8544522523880005e-01</leafValues></_>
        <_>
          <internalNodes>
            0 -1 194 -1.1954559013247490e-02</internalNodes>
          <leafValues>
            5.0947195291519165e-01 -2.6352694630622864e-01</leafValues></_>
        <_>
          <internalNodes>
            0 -1 200 -1.1113192886114120e-03</internalNodes>
          <leafValues>
            -8.9721226692199707e-01 1.6264416277408600e-01</leafValues></_></weakClassifiers></_>
    <!-- stage 11 -->
    <_>
      <maxWeakCount>13</maxWeakCount>
      <stageThreshold>-1.5294216871261597e+00</stageThreshold>
      <weakClassifiers>
        <_>
          <internalNodes>
            0 -1 150 5.5208332836627960e-02</internalNodes>
          <leafValues>
            -6.1365342140197754e-01 2.0045818388462067e-01</leafValues></_>
        <_>
          <internalNodes>
            0 -1 153 4.0035519748926163e-02</internalNodes>
          <leafValues>
            -5.9193009138107300e-01 1.8951593339443207e-01</leafValues></_>
        <_>
          <internalNodes>
            0 -1 68 5.1550321280956268e-02</internalNodes>
          <leafValues>
            -2.4407681822776794e-01 5.0756222009658813e-01</leafValues></_>
        <_>
          <internalNodes>
            0 -1 11 -1.3805349357426167e-02</internalNodes>
          <leafValues>
            5.5171036720275879e-01 -2.0319654047489166e-01</leafValues></_>
        <_>
          <internalNodes>
            0 -1 134 5.3772739192936569e-05</internalNodes>
          <leafValues>
            -5.1307731866836548e-01 2.6636195182800293e-01</leafValues></_>
        <_>
          <internalNodes>
            0 -1 56 1.0152976959943771e-01</internalNodes>
          <leafValues>
            -2.4043625593185425e-01 4.3285229802131653e-01</leafValues></_>
        <_>
          <internalNodes>
            0 -1 197 7.7756133396178484e-04</internalNodes>
          <leafValues>
            1.4044612646102905e-01 -7.4581682682037354e-01</leafValues></_>
        <_>
          <internalNodes>
            0 -1 98 -2.1826840937137604e-02</internalNodes>
          <leafValues>
            -7.8368312120437622e-01 1.1440742760896683e-01</leafValues></_>
        <_>
          <internalNodes>
            0 -1 120 -5.7657623983686790e-05</internalNodes>
          <leafValues>
            2.8533819317817688e-01 -3.4210360050201416e-01</leafValues></_>
        <_>
          <internalNodes>
            0 -1 198 -2.3320131003856659e-03</internalNodes>
          <leafValues>
            -9.3574851751327515e-01 1.0644458234310150e-01</leafValues></_>
        <_>
          <internalNodes>
            0 -1 180 1.2300418689846992e-02</internalNodes>
          <leafValues>
            -3.0734810233116150e-01 3.0350804328918457e-01</leafValues></_>
        <_>
          <internalNodes>
            0 -1 26 5.2336996304802597e-05</internalNodes>
          <leafValues>
            -3.3087694644927979e-01 2.9540073871612549e-01</leafValues></_>
        <_>
          <internalNodes>
            0 -1 25 1.1840034276247025e-03</internalNodes>
          <leafValues>
            1.1689850687980652e-01 -8.6690622568130493e-01</leafValues></_></weakClassifiers></_>
    <!-- stage 12 -->
    <_>
      <maxWeakCount>11</maxWeakCount>
      <stageThreshold>-1.5147528648376465e+00</stageThreshold>
      <weakClassifiers>
        <_>
          <internalNodes>
            0 -1 57 2.1548753976821899e-01</internalNodes>
          <leafValues>
            -5.4484087228775024e-01 5.4672896862030029e-01</leafValues></_>
        <_>
          <internalNodes>
            0 -1 126 6.9669885560870171e-03</internalNodes>
          <leafValues>
            -8.3740150928497314e-01 1.3569082319736481e-01</leafValues></_>
        <_>
          <internalNodes>
            0 -1 77 6.4486011862754822e-02</internalNodes>
          <leafValues>
            -4.2134222388267517e-01 2.7128019928932190e-01</leafValues></_>
        <_>
          <internalNodes>
            0 -1 159 4.8312907892977819e-05</internalNodes>
          <leafValues>
            -3.0911692976951599e-01 3.8132008910179138e-01</leafValues></_>
        <_>
          <internalNodes>
            0 -1 138 5.1746104873018339e-05</internalNodes>
          <leafValues>
            -5.0506269931793213e-01 2.2353282570838928e-01</leafValues></_>
        <_>
          <internalNodes>
            0 -1 7 -3.5459764301776886e-02</internalNodes>
          <leafValues>
            3.7629672884941101e-01 -2.8547102212905884e-01</leafValues></_>
        <_>
          <internalNodes>
            0 -1 171 -1.2982556363567710e-03</internalNodes>
          <leafValues>
            -7.4412029981613159e-01 1.5803493559360504e-01</leafValues></_>
        <_>
          <internalNodes>
            0 -1 188 9.7079935949295759e-04</internalNodes>
          <leafValues>
            1.3700231909751892e-01 -7.6578235626220703e-01</leafValues></_>
        <_>
          <internalNodes>
            0 -1 179 -5.4973817896097898e-05</internalNodes>
          <leafValues>
            3.1128114461898804e-01 -3.4525197744369507e-01</leafValues></_>
        <_>
          <internalNodes>
            0 -1 23 -2.5350277428515255e-04</internalNodes>
          <leafValues>
            -7.3438876867294312e-01 1.2931899726390839e-01</leafValues></_>
        <_>
          <internalNodes>
            0 -1 87 -5.2296429203124717e-05</internalNodes>
          <leafValues>
            2.2957247495651245e-01 -4.4395947456359863e-01</leafValues></_></weakClassifiers></_>
    <!-- stage 13 -->
    <_>
      <maxWeakCount>14</maxWeakCount>
      <stageThreshold>-1.4532852172851563e+00</stageThreshold>
      <weakClassifiers>
        <_>
          <internalNodes>
            0 -1 163 -1.8025983124971390e-02</internalNodes>
          <leafValues>
            1.3915857672691345e-01 -6.0872894525527954e-01</leafValues></_>
        <_>
          <internalNodes>
            0 -1 15 8.2782059907913208e-02</internalNodes>
          <leafValues>
            -5.9691256284713745e-01 1.5224260091781616e-01</leafValues></_>
        <_>
          <internalNodes>
            0 -1 131 4.6442214399576187e-02</internalNodes>
          <leafValues>
            -2.4590574204921722e-01 4.0414547920227051e-01</leafValues></_>
        <_>
          <internalNodes>
            0 -1 66 4.3263323605060577e-03</internalNodes>
          <leafValues>
            -2.5270140171051025e-01 4.5835590362548828e-01</leafValues></_>
        <_>
          <internalNodes>
            0 -1 146 -6.1792030464857817e-04</internalNodes>
          <leafValues>
            -6.3520228862762451e-01 1.3184046745300293e-01</leafValues></_>
        <_>
          <internalNodes>
            0 -1 193 -5.0644797738641500e-05</internalNodes>
          <leafValues>
            2.1781241893768311e-01 -4.4585785269737244e-01</leafValues></_>
        <_>
          <internalNodes>
            0 -1 4 -5.8220975100994110e-02</internalNodes>
          <leafValues>
            3.3056807518005371e-01 -2.8173729777336121e-01</leafValues></_>
        <_>
          <internalNodes>
            0 -1 185 -1.1654847301542759e-02</internalNodes>
          <leafValues>
            7.3323523998260498e-01 -1.2226479500532150e-01</leafValues></_>
        <_>
          <internalNodes>
            0 -1 199 -5.0014528824249282e-05</internalNodes>
          <leafValues>
            3.6099964380264282e-01 -3.4702393412590027e-01</leafValues></_>
        <_>
          <internalNodes>
            0 -1 140 5.4899290262255818e-05</internalNodes>
          <leafValues>
            -4.2697480320930481e-01 2.2486902773380280e-01</leafValues></_>
        <_>
          <internalNodes>
            0 -1 114 -2.5554667226970196e-03</internalNodes>
          <leafValues>
            -8.4800231456756592e-01 1.1298672109842300e-01</leafValues></_>
        <_>
          <internalNodes>
            0 -1 42 -2.7598974108695984e-01</internalNodes>
          <leafValues>
            6.1755192279815674e-01 -1.7089182138442993e-01</leafValues></_>
        <_>
          <internalNodes>
            0 -1 55 1.1897440999746323e-01</internalNodes>
          <leafValues>
            -2.5395444035530090e-01 4.3845716118812561e-01</leafValues></_>
        <_>
          <internalNodes>
            0 -1 10 8.6142709478735924e-03</internalNodes>
          <leafValues>
            1.4202605187892914e-01 -8.0510264635086060e-01</leafValues></_></weakClassifiers></_>
    <!-- stage 14 -->
    <_>
      <maxWeakCount>16</maxWeakCount>
      <stageThreshold>-1.5423320531845093e+00</stageThreshold>
      <weakClassifiers>
        <_>
          <internalNodes>
            0 -1 63 2.1887046098709106e-01</internalNodes>
          <leafValues>
            -5.6870889663696289e-01 2.8000000119209290e-01</leafValues></_>
        <_>
          <internalNodes>
            0 -1 81 1.5843142569065094e-01</internalNodes>
          <leafValues>
            -2.3906396329402924e-01 5.2451497316360474e-01</leafValues></_>
        <_>
          <internalNodes>
            0 -1 139 8.4827348589897156e-02</internalNodes>
          <leafValues>
            -3.1788754463195801e-01 3.7034803628921509e-01</leafValues></_>
        <_>
          <internalNodes>
            0 -1 127 -1.2898130808025599e-03</internalNodes>
          <leafValues>
            1.8865220248699188e-01 -6.6088604927062988e-01</leafValues></_>
        <_>
          <internalNodes>
            0 -1 101 5.2266666898503900e-05</internalNodes>
          <leafValues>
            -3.7404707074165344e-01 2.5354304909706116e-01</leafValues></_>
        <_>
          <internalNodes>
            0 -1 19 -1.6106993425637484e-03</internalNodes>
          <leafValues>
            -7.3886680603027344e-01 1.5006344020366669e-01</leafValues></_>
        <_>
          <internalNodes>
            0 -1 28 -5.3626736626029015e-03</internalNodes>
          <leafValues>
            3.2595303654670715e-01 -2.8975522518157959e-01</leafValues></_>
        <_>
          <internalNodes>
            0 -1 14 -7.1040843613445759e-04</internalNodes>
          <leafValues>
            -6.9458240270614624e-01 1.3428981602191925e-01</leafValues></_>
        <_>
          <internalNodes>
            0 -1 84 5.2281335229054093e-05</internalNodes>
          <leafValues>
            -3.0854320526123047e-01 2.6592618227005005e-01</leafValues></_>
        <_>
          <internalNodes>
            0 -1 39 8.8051967322826385e-03</internalNodes>
          <leafValues>
            1.2625984847545624e-01 -7.0381426811218262e-01</leafValues></_>
        <_>
          <internalNodes>
            0 -1 73 7.4680924415588379e-02</internalNodes>
          <leafValues>
            -1.9996149837970734e-01 4.5154312252998352e-01</leafValues></_>
        <_>
          <internalNodes>
            0 -1 31 2.2832396626472473e-01</internalNodes>
          <leafValues>
            -1.5544235706329346e-01 5.4024511575698853e-01</leafValues></_>
        <_>
          <internalNodes>
            0 -1 177 -5.9809186495840549e-03</internalNodes>
          <leafValues>
            4.1785633563995361e-01 -2.1747380495071411e-01</leafValues></_>
        <_>
          <internalNodes>
            0 -1 151 2.2735580801963806e-02</internalNodes>
          <leafValues>
            -1.5055051445960999e-01 6.0373800992965698e-01</leafValues></_>
        <_>
          <internalNodes>
            0 -1 40 -8.2264502998441458e-04</internalNodes>
          <leafValues>
            -7.8642779588699341e-01 1.3211691379547119e-01</leafValues></_>
        <_>
          <internalNodes>
            0 -1 110 -9.1776333283632994e-04</internalNodes>
          <leafValues>
            -7.2455608844757080e-01 9.7097054123878479e-02</leafValues></_></weakClassifiers></_>
    <!-- stage 15 -->
    <_>
      <maxWeakCount>15</maxWeakCount>
      <stageThreshold>-1.4390386343002319e+00</stageThreshold>
      <weakClassifiers>
        <_>
          <internalNodes>
            0 -1 170 -2.6275222189724445e-03</internalNodes>
          <leafValues>
            -1.0017996281385422e-01 -6.9123929738998413e-01</leafValues></_>
        <_>
          <internalNodes>
            0 -1 154 1.1358250631019473e-03</internalNodes>
          <leafValues>
            -5.9859311580657959e-01 1.4260646700859070e-01</leafValues></_>
        <_>
          <internalNodes>
            0 -1 38 -1.4542062999680638e-03</internalNodes>
          <leafValues>
            -7.3826503753662109e-01 1.0805311053991318e-01</leafValues></_>
        <_>
          <internalNodes>
            0 -1 5 -4.2626954615116119e-02</internalNodes>
          <leafValues>
            5.0147241353988647e-01 -2.1316047012805939e-01</leafValues></_>
        <_>
          <internalNodes>
            0 -1 49 4.9604371190071106e-02</internalNodes>
          <leafValues>
            -2.7080407738685608e-01 4.0759426355361938e-01</leafValues></_>
        <_>
          <internalNodes>
            0 -1 201 2.6671757223084569e-04</internalNodes>
          <leafValues>
            1.4976710081100464e-01 -7.8417265415191650e-01</leafValues></_>
        <_>
          <internalNodes>
            0 -1 116 -5.9545738622546196e-05</internalNodes>
          <leafValues>
            2.2302581369876862e-01 -3.6938744783401489e-01</leafValues></_>
        <_>
          <internalNodes>
            0 -1 202 -4.7399167669937015e-05</internalNodes>
          <leafValues>
            3.3273535966873169e-01 -2.6385083794593811e-01</leafValues></_>
        <_>
          <internalNodes>
            0 -1 90 -2.6347098872065544e-02</internalNodes>
          <leafValues>
            -8.3543747663497925e-01 8.9380100369453430e-02</leafValues></_>
        <_>
          <internalNodes>
            0 -1 123 -6.1540626920759678e-03</internalNodes>
          <leafValues>
            -9.5157688856124878e-01 6.0911167412996292e-02</leafValues></_>
        <_>
          <internalNodes>
            0 -1 130 -9.1077238321304321e-02</internalNodes>
          <leafValues>
            5.3123503923416138e-01 -1.7961987853050232e-01</leafValues></_>
        <_>
          <internalNodes>
            0 -1 206 3.9997994899749756e-03</internalNodes>
          <leafValues>
            1.2960363924503326e-01 -6.8633282184600830e-01</leafValues></_>
        <_>
          <internalNodes>
            0 -1 41 1.0513134300708771e-02</internalNodes>
          <leafValues>
            -1.8162302672863007e-01 4.6770924329757690e-01</leafValues></_>
        <_>
          <internalNodes>
            0 -1 97 -2.6715215295553207e-02</internalNodes>
          <leafValues>
            -7.8489798307418823e-01 1.1770212650299072e-01</leafValues></_>
        <_>
          <internalNodes>
            0 -1 8 5.4363837989512831e-05</internalNodes>
          <leafValues>
            -2.8988084197044373e-01 2.9672566056251526e-01</leafValues></_></weakClassifiers></_>
    <!-- stage 16 -->
    <_>
      <maxWeakCount>16</maxWeakCount>
      <stageThreshold>-1.4327960014343262e+00</stageThreshold>
      <weakClassifiers>
        <_>
          <internalNodes>
            0 -1 12 -1.4499332755804062e-02</internalNodes>
          <leafValues>
            1.2242899090051651e-01 -6.2986499071121216e-01</leafValues></_>
        <_>
          <internalNodes>
            0 -1 93 5.8547100052237511e-03</internalNodes>
          <leafValues>
            -4.5019051432609558e-01 2.9847449064254761e-01</leafValues></_>
        <_>
          <internalNodes>
            0 -1 27 -1.5697759808972478e-03</internalNodes>
          <leafValues>
            1.8819566071033478e-01 -4.7582200169563293e-01</leafValues></_>
        <_>
          <internalNodes>
            0 -1 137 1.4596174005419016e-03</internalNodes>
          <leafValues>
            -4.1983655095100403e-01 2.6275226473808289e-01</leafValues></_>
        <_>
          <internalNodes>
            0 -1 113 5.4341807961463928e-02</internalNodes>
          <leafValues>
            -3.6866492033004761e-01 2.2057153284549713e-01</leafValues></_>
        <_>
          <internalNodes>
            0 -1 164 -3.0825049616396427e-03</internalNodes>
          <leafValues>
            3.6000043153762817e-01 -2.2600083053112030e-01</leafValues></_>
        <_>
          <internalNodes>
            0 -1 178 -1.8761117011308670e-02</internalNodes>
          <leafValues>
            5.8345907926559448e-01 -1.7637455463409424e-01</leafValues></_>
        <_>
          <internalNodes>
            0 -1 207 1.8974039703607559e-03</internalNodes>
          <leafValues>
            1.2846787273883820e-01 -7.1748542785644531e-01</leafValues></_>
        <_>
          <internalNodes>
            0 -1 204 -1.5039632562547922e-03</internalNodes>
          <leafValues>
            -7.8702890872955322e-01 8.6330853402614594e-02</leafValues></_>
        <_>
          <internalNodes>
            0 -1 172 -1.7470978200435638e-02</internalNodes>
          <leafValues>
            6.2819981575012207e-01 -1.4671063423156738e-01</leafValues></_>
        <_>
          <internalNodes>
            0 -1 160 9.3075651675462723e-03</internalNodes>
          <leafValues>
            -2.3926106095314026e-01 3.4568539261817932e-01</leafValues></_>
        <_>
          <internalNodes>
            0 -1 30 9.9276825785636902e-02</internalNodes>
          <leafValues>
            -2.2439588606357574e-01 3.5343012213706970e-01</leafValues></_>
        <_>
          <internalNodes>
            0 -1 75 1.0981401428580284e-02</internalNodes>
          <leafValues>
            -2.1328930556774139e-01 5.2362734079360962e-01</leafValues></_>
        <_>
          <internalNodes>
            0 -1 88 2.6952776312828064e-01</internalNodes>
          <leafValues>
            -1.2754032015800476e-01 5.2500051259994507e-01</leafValues></_>
        <_>
          <internalNodes>
            0 -1 184 5.1758598536252975e-02</internalNodes>
          <leafValues>
            -1.6516312956809998e-01 5.3834259510040283e-01</leafValues></_>
        <_>
          <internalNodes>
            0 -1 144 -2.5090475101023912e-03</internalNodes>
          <leafValues>
            4.1578227281570435e-01 -1.9073033332824707e-01</leafValues></_></weakClassifiers></_>
    <!-- stage 17 -->
    <_>
      <maxWeakCount>16</maxWeakCount>
      <stageThreshold>-1.4593781232833862e+00</stageThreshold>
      <weakClassifiers>
        <_>
          <internalNodes>
            0 -1 45 -1.5505822375416756e-02</internalNodes>
          <leafValues>
            2.8054298833012581e-02 -6.1298274993896484e-01</leafValues></_>
        <_>
          <internalNodes>
            0 -1 117 -5.6133543694159016e-05</internalNodes>
          <leafValues>
            2.6393172144889832e-01 -3.8540580868721008e-01</leafValues></_>
        <_>
          <internalNodes>
            0 -1 183 1.8028929829597473e-02</internalNodes>
          <leafValues>
            -5.3574371337890625e-01 1.7739826440811157e-01</leafValues></_>
        <_>
          <internalNodes>
            0 -1 107 -5.8160210028290749e-03</internalNodes>
          <leafValues>
            -7.6066190004348755e-01 1.3056892156600952e-01</leafValues></_>
        <_>
          <internalNodes>
            0 -1 143 -1.6805080231279135e-03</internalNodes>
          <leafValues>
            2.9925155639648438e-01 -3.0857542157173157e-01</leafValues></_>
        <_>
          <internalNodes>
            0 -1 89 -1.8744910135865211e-02</internalNodes>
          <leafValues>
            -7.0342105627059937e-01 1.4243054389953613e-01</leafValues></_>
        <_>
          <internalNodes>
            0 -1 133 -8.4878865163773298e-04</internalNodes>
          <leafValues>
            -4.9143821001052856e-01 1.4161057770252228e-01</leafValues></_>
        <_>
          <internalNodes>
            0 -1 83 5.8918930590152740e-02</internalNodes>
          <leafValues>
            -1.1939432471990585e-01 7.9536670446395874e-01</leafValues></_>
        <_>
          <internalNodes>
            0 -1 13 -9.4468547031283379e-03</internalNodes>
          <leafValues>
            3.3055883646011353e-01 -3.5700452327728271e-01</leafValues></_>
        <_>
          <internalNodes>
            0 -1 18 4.6010391088202596e-05</internalNodes>
          <leafValues>
            -2.8841874003410339e-01 3.0260854959487915e-01</leafValues></_>
        <_>
          <internalNodes>
            0 -1 167 -6.1428931076079607e-04</internalNodes>
          <leafValues>
            -6.6801583766937256e-01 9.8690509796142578e-02</leafValues></_>
        <_>
          <internalNodes>
            0 -1 96 4.7518573701381683e-03</internalNodes>
          <leafValues>
            6.1942137777805328e-02 -8.8750255107879639e-01</leafValues></_>
        <_>
          <internalNodes>
            0 -1 61 2.9146017041057348e-03</internalNodes>
          <leafValues>
            -2.5563007593154907e-01 2.6632738113403320e-01</leafValues></_>
        <_>
          <internalNodes>
            0 -1 2 -4.0634590387344360e-01</internalNodes>
          <leafValues>
            4.6293324232101440e-01 -1.8720822036266327e-01</leafValues></_>
        <_>
          <internalNodes>
            0 -1 129 -2.3677367717027664e-03</internalNodes>
          <leafValues>
            2.1273387968540192e-01 -3.9054158329963684e-01</leafValues></_>
        <_>
          <internalNodes>
            0 -1 50 -1.0944267362356186e-01</internalNodes>
          <leafValues>
            7.4326425790786743e-01 -1.1052737385034561e-01</leafValues></_></weakClassifiers></_>
    <!-- stage 18 -->
    <_>
      <maxWeakCount>18</maxWeakCount>
      <stageThreshold>-1.4174270629882813e+00</stageThreshold>
      <weakClassifiers>
        <_>
          <internalNodes>
            0 -1 190 -1.6383208334445953e-02</internalNodes>
          <leafValues>
            -2.9616724699735641e-02 -5.9682142734527588e-01</leafValues></_>
        <_>
          <internalNodes>
            0 -1 37 5.1643820479512215e-03</internalNodes>
          <leafValues>
            -4.7852051258087158e-01 1.4851929247379303e-01</leafValues></_>
        <_>
          <internalNodes>
            0 -1 51 -3.2937000505626202e-03</internalNodes>
          <leafValues>
            -6.9250142574310303e-01 9.7469583153724670e-02</leafValues></_>
        <_>
          <internalNodes>
            0 -1 0 -1.1908445507287979e-02</internalNodes>
          <leafValues>
            4.4257903099060059e-01 -1.4990597963333130e-01</leafValues></_>
        <_>
          <internalNodes>
            0 -1 60 1.0711143910884857e-01</internalNodes>
          <leafValues>
            -1.8053404986858368e-01 5.1953333616256714e-01</leafValues></_>
        <_>
          <internalNodes>
            0 -1 17 -7.1084429509937763e-04</internalNodes>
          <leafValues>
            -6.9625103473663330e-01 1.1101950705051422e-01</leafValues></_>
        <_>
          <internalNodes>
            0 -1 145 8.5949311032891273e-03</internalNodes>
          <leafValues>
            -2.1588677167892456e-01 3.6056023836135864e-01</leafValues></_>
        <_>
          <internalNodes>
            0 -1 122 -1.4035895001143217e-03</internalNodes>
          <leafValues>
            1.6582047939300537e-01 -5.3715294599533081e-01</leafValues></_>
        <_>
          <internalNodes>
            0 -1 53 3.1233131885528564e-03</internalNodes>
          <leafValues>
            -1.7652803659439087e-01 4.8831585049629211e-01</leafValues></_>
        <_>
          <internalNodes>
            0 -1 82 -7.1302172727882862e-04</internalNodes>
          <leafValues>
            1.5000677108764648e-01 -5.1224923133850098e-01</leafValues></_>
        <_>
          <internalNodes>
            0 -1 100 1.1908097192645073e-02</internalNodes>
          <leafValues>
            1.0148475319147110e-01 -6.3501501083374023e-01</leafValues></_>
        <_>
          <internalNodes>
            0 -1 155 8.3258002996444702e-03</internalNodes>
          <leafValues>
            -2.0865733921527863e-01 3.6102423071861267e-01</leafValues></_>
        <_>
          <internalNodes>
            0 -1 203 -5.2033072279300541e-05</internalNodes>
          <leafValues>
            2.6828253269195557e-01 -2.8365448117256165e-01</leafValues></_>
        <_>
          <internalNodes>
            0 -1 186 -1.1818155646324158e-02</internalNodes>
          <leafValues>
            5.4948896169662476e-01 -1.3677346706390381e-01</leafValues></_>
        <_>
          <internalNodes>
            0 -1 162 -3.1553010921925306e-03</internalNodes>
          <leafValues>
            2.8811681270599365e-01 -2.6190569996833801e-01</leafValues></_>
        <_>
          <internalNodes>
            0 -1 108 -2.3918622173368931e-03</internalNodes>
          <leafValues>
            -8.5446381568908691e-01 8.4354028105735779e-02</leafValues></_>
        <_>
          <internalNodes>
            0 -1 102 -2.3262070026248693e-03</internalNodes>
          <leafValues>
            -8.0653089284896851e-01 6.5663509070873260e-02</leafValues></_>
        <_>
          <internalNodes>
            0 -1 54 -7.8227192163467407e-02</internalNodes>
          <leafValues>
            -7.5411295890808105e-01 7.0275314152240753e-02</leafValues></_></weakClassifiers></_></stages>
  <features>
    <_>
      <rects>
        <_>
          0 0 10 8 -1.</_>
        <_>
          0 0 5 4 2.</_>
        <_>
          5 4 5 4 2.</_></rects>
      <tilted>0</tilted></_>
    <_>
      <rects>
        <_>
          0 0 42 20 -1.</_>
        <_>
          14 0 14 20 3.</_></rects>
      <tilted>0</tilted></_>
    <_>
      <rects>
        <_>
          0 0 42 21 -1.</_>
        <_>
          14 0 14 21 3.</_></rects>
      <tilted>0</tilted></_>
    <_>
      <rects>
        <_>
          0 3 10 13 -1.</_>
        <_>
          5 3 5 13 2.</_></rects>
      <tilted>0</tilted></_>
    <_>
      <rects>
        <_>
          0 3 21 21 -1.</_>
        <_>
          7 3 7 21 3.</_></rects>
      <tilted>0</tilted></_>
    <_>
      <rects>
        <_>
          0 4 8 20 -1.</_>
        <_>
          4 4 4 20 2.</_></rects>
      <tilted>0</tilted></_>
    <_>
      <rects>
        <_>
          0 4 10 11 -1.</_>
        <_>
          5 4 5 11 2.</_></rects>
      <tilted>0</tilted></_>
    <_>
      <rects>
        <_>
          0 5 18 19 -1.</_>
        <_>
          6 5 6 19 3.</_></rects>
      <tilted>0</tilted></_>
    <_>
      <rects>
        <_>
          0 6 2 3 -1.</_>
        <_>
          1 6 1 3 2.</_></rects>
      <tilted>0</tilted></_>
    <_>
      <rects>
        <_>
          0 6 8 6 -1.</_>
        <_>
          4 6 4 6 2.</_></rects>
      <tilted>0</tilted></_>
    <_>
      <rects>
        <_>
          0 7 1 15 -1.</_>
        <_>
          0 12 1 5 3.</_></rects>
      <tilted>0</tilted></_>
    <_>
      <rects>
        <_>
          0 7 8 3 -1.</_>
        <_>
          4 7 4 3 2.</_></rects>
      <tilted>0</tilted></_>
    <_>
      <rects>
        <_>
          0 8 8 4 -1.</_>
        <_>
          4 8 4 4 2.</_></rects>
      <tilted>0</tilted></_>
    <_>
      <rects>
        <_>
          0 8 10 10 -1.</_>
        <_>
          5 8 5 10 2.</_></rects>
      <tilted>0</tilted></_>
    <_>
      <rects>
        <_>
          0 9 1 6 -1.</_>
        <_>
          0 11 1 2 3.</_></rects>
      <tilted>0</tilted></_>
    <_>
      <rects>
        <_>
          0 9 19 15 -1.</_>
        <_>
          0 14 19 5 3.</_></rects>
      <tilted>0</tilted></_>
    <_>
      <rects>
        <_>
          0 9 32 15 -1.</_>
        <_>
          0 14 32 5 3.</_></rects>
      <tilted>0</tilted></_>
    <_>
      <rects>
        <_>
          0 11 1 6 -1.</_>
        <_>
          0 13 1 2 3.</_></rects>
      <tilted>0</tilted></_>
    <_>
      <rects>
        <_>
          0 12 2 1 -1.</_>
        <_>
          1 12 1 1 2.</_></rects>
      <tilted>0</tilted></_>
    <_>
      <rects>
        <_>
          0 12 2 9 -1.</_>
        <_>
          0 15 2 3 3.</_></rects>
      <tilted>0</tilted></_>
    <_>
      <rects>
        <_>
          0 13 2 1 -1.</_>
        <_>
          1 13 1 1 2.</_></rects>
      <tilted>0</tilted></_>
    <_>
      <rects>
        <_>
          0 13 16 6 -1.</_>
        <_>
          8 13 8 6 2.</_></rects>
      <tilted>0</tilted></_>
    <_>
      <rects>
        <_>
          0 14 13 10 -1.</_>
        <_>
          0 19 13 5 2.</_></rects>
      <tilted>0</tilted></_>
    <_>
      <rects>
        <_>
          0 15 2 2 -1.</_>
        <_>
          1 15 1 2 2.</_></rects>
      <tilted>0</tilted></_>
    <_>
      <rects>
        <_>
          0 15 12 3 -1.</_>
        <_>
          4 15 4 3 3.</_></rects>
      <tilted>0</tilted></_>
    <_>
      <rects>
        <_>
          0 16 3 5 -1.</_>
        <_>
          1 16 1 5 3.</_></rects>
      <tilted>0</tilted></_>
    <_>
      <rects>
        <_>
          0 17 2 1 -1.</_>
        <_>
          1 17 1 1 2.</_></rects>
      <tilted>0</tilted></_>
    <_>
      <rects>
        <_>
          0 20 14 2 -1.</_>
        <_>
          0 21 14 1 2.</_></rects>
      <tilted>0</tilted></_>
    <_>
      <rects>
        <_>
          1 0 9 8 -1.</_>
        <_>
          1 4 9 4 2.</_></rects>
      <tilted>0</tilted></_>
    <_>
      <rects>
        <_>
          1 0 42 1 -1.</_>
        <_>
          15 0 14 1 3.</_></rects>
      <tilted>0</tilted></_>
    <_>
      <rects>
        <_>
          1 5 10 18 -1.</_>
        <_>
          1 11 10 6 3.</_></rects>
      <tilted>0</tilted></_>
    <_>
      <rects>
        <_>
          1 7 31 15 -1.</_>
        <_>
          1 12 31 5 3.</_></rects>
      <tilted>0</tilted></_>
    <_>
      <rects>
        <_>
          1 14 30 9 -1.</_>
        <_>
          11 14 10 9 3.</_></rects>
      <tilted>0</tilted></_>
    <_>
      <rects>
        <_>
          1 21 2 2 -1.</_>
        <_>
          1 22 2 1 2.</_></rects>
      <tilted>0</tilted></_>
    <_>
      <rects>
        <_>
          2 6 9 9 -1.</_>
        <_>
          5 6 3 9 3.</_></rects>
      <tilted>0</tilted></_>
    <_>
      <rects>
        <_>
          2 8 9 5 -1.</_>
        <_>
          5 8 3 5 3.</_></rects>
      <tilted>0</tilted></_>
    <_>
      <rects>
        <_>
          2 8 12 14 -1.</_>
        <_>
          2 8 6 7 2.</_>
        <_>
          8 15 6 7 2.</_></rects>
      <tilted>0</tilted></_>
    <_>
      <rects>
        <_>
          2 13 13 6 -1.</_>
        <_>
          2 15 13 2 3.</_></rects>
      <tilted>0</tilted></_>
    <_>
      <rects>
        <_>
          2 17 9 2 -1.</_>
        <_>
          5 17 3 2 3.</_></rects>
      <tilted>0</tilted></_>
    <_>
      <rects>
        <_>
          2 17 36 6 -1.</_>
        <_>
          14 17 12 6 3.</_></rects>
      <tilted>0</tilted></_>
    <_>
      <rects>
        <_>
          2 18 3 5 -1.</_>
        <_>
          3 18 1 5 3.</_></rects>
      <tilted>0</tilted></_>
    <_>
      <rects>
        <_>
          3 0 8 10 -1.</_>
        <_>
          3 0 4 5 2.</_>
        <_>
          7 5 4 5 2.</_></rects>
      <tilted>0</tilted></_>
    <_>
      <rects>
        <_>
          3 1 35 21 -1.</_>
        <_>
          3 8 35 7 3.</_></rects>
      <tilted>0</tilted></_>
    <_>
      <rects>
        <_>
          3 2 27 21 -1.</_>
        <_>
          3 9 27 7 3.</_></rects>
      <tilted>0</tilted></_>
    <_>
      <rects>
        <_>
          3 3 24 21 -1.</_>
        <_>
          3 10 24 7 3.</_></rects>
      <tilted>0</tilted></_>
    <_>
      <rects>
        <_>
          3 3 34 6 -1.</_>
        <_>
          3 6 34 3 2.</_></rects>
      <tilted>0</tilted></_>
    <_>
      <rects>
        <_>
          3 6 11 18 -1.</_>
        <_>
          3 12 11 6 3.</_></rects>
      <tilted>0</tilted></_>
    <_>
      <rects>
        <_>
          3 9 11 15 -1.</_>
        <_>
          3 14 11 5 3.</_></rects>
      <tilted>0</tilted></_>
    <_>
      <rects>
        <_>
          3 9 19 15 -1.</_>
        <_>
          3 14 19 5 3.</_></rects>
      <tilted>0</tilted></_>
    <_>
      <rects>
        <_>
          3 13 16 9 -1.</_>
        <_>
          3 16 16 3 3.</_></rects>
      <tilted>0</tilted></_>
    <_>
      <rects>
        <_>
          3 15 26 6 -1.</_>
        <_>
          3 18 26 3 2.</_></rects>
      <tilted>0</tilted></_>
    <_>
      <rects>
        <_>
          3 16 6 8 -1.</_>
        <_>
          5 16 2 8 3.</_></rects>
      <tilted>0</tilted></_>
    <_>
      <rects>
        <_>
          3 20 1 2 -1.</_>
        <_>
          3 21 1 1 2.</_></rects>
      <tilted>0</tilted></_>
    <_>
      <rects>
        <_>
          4 1 6 6 -1.</_>
        <_>
          4 1 3 3 2.</_>
        <_>
          7 4 3 3 2.</_></rects>
      <tilted>0</tilted></_>
    <_>
      <rects>
        <_>
          4 2 26 22 -1.</_>
        <_>
          4 2 13 11 2.</_>
        <_>
          17 13 13 11 2.</_></rects>
      <tilted>0</tilted></_>
    <_>
      <rects>
        <_>
          4 3 8 21 -1.</_>
        <_>
          4 10 8 7 3.</_></rects>
      <tilted>0</tilted></_>
    <_>
      <rects>
        <_>
          4 7 13 15 -1.</_>
        <_>
          4 12 13 5 3.</_></rects>
      <tilted>0</tilted></_>
    <_>
      <rects>
        <_>
          4 8 29 12 -1.</_>
        <_>
          4 14 29 6 2.</_></rects>
      <tilted>0</tilted></_>
    <_>
      <rects>
        <_>
          4 9 11 15 -1.</_>
        <_>
          4 14 11 5 3.</_></rects>
      <tilted>0</tilted></_>
    <_>
      <rects>
        <_>
          4 9 20 15 -1.</_>
        <_>
          4 14 20 5 3.</_></rects>
      <tilted>0</tilted></_>
    <_>
      <rects>
        <_>
          4 14 26 9 -1.</_>
        <_>
          4 17 26 3 3.</_></rects>
      <tilted>0</tilted></_>
    <_>
      <rects>
        <_>
          5 9 10 3 -1.</_>
        <_>
          10 9 5 3 2.</_></rects>
      <tilted>0</tilted></_>
    <_>
      <rects>
        <_>
          5 9 9 15 -1.</_>
        <_>
          5 14 9 5 3.</_></rects>
      <tilted>0</tilted></_>
    <_>
      <rects>
        <_>
          5 9 35 12 -1.</_>
        <_>
          5 15 35 6 2.</_></rects>
      <tilted>0</tilted></_>
    <_>
      <rects>
        <_>
          5 10 1 2 -1.</_>
        <_>
          5 11 1 1 2.</_></rects>
      <tilted>0</tilted></_>
    <_>
      <rects>
        <_>
          5 19 1 2 -1.</_>
        <_>
          5 20 1 1 2.</_></rects>
      <tilted>0</tilted></_>
    <_>
      <rects>
        <_>
          6 5 6 8 -1.</_>
        <_>
          9 5 3 8 2.</_></rects>
      <tilted>0</tilted></_>
    <_>
      <rects>
        <_>
          6 9 6 15 -1.</_>
        <_>
          6 14 6 5 3.</_></rects>
      <tilted>0</tilted></_>
    <_>
      <rects>
        <_>
          6 12 6 12 -1.</_>
        <_>
          6 16 6 4 3.</_></rects>
      <tilted>0</tilted></_>
    <_>
      <rects>
        <_>
          6 14 6 9 -1.</_>
        <_>
          6 17 6 3 3.</_></rects>
      <tilted>0</tilted></_>
    <_>
      <rects>
        <_>
          6 15 15 9 -1.</_>
        <_>
          11 15 5 9 3.</_></rects>
      <tilted>0</tilted></_>
    <_>
      <rects>
        <_>
          6 20 1 2 -1.</_>
        <_>
          6 21 1 1 2.</_></rects>
      <tilted>0</tilted></_>
    <_>
      <rects>
        <_>
          7 12 1 2 -1.</_>
        <_>
          7 13 1 1 2.</_></rects>
      <tilted>0</tilted></_>
    <_>
      <rects>
        <_>
          7 12 9 12 -1.</_>
        <_>
          7 16 9 4 3.</_></rects>
      <tilted>0</tilted></_>
    <_>
      <rects>
        <_>
          7 14 10 7 -1.</_>
        <_>
          12 14 5 7 2.</_></rects>
      <tilted>0</tilted></_>
    <_>
      <rects>
        <_>
          7 14 17 4 -1.</_>
        <_>
          7 16 17 2 2.</_></rects>
      <tilted>0</tilted></_>
    <_>
      <rects>
        <_>
          7 16 10 5 -1.</_>
        <_>
          12 16 5 5 2.</_></rects>
      <tilted>0</tilted></_>
    <_>
      <rects>
        <_>
          8 6 8 18 -1.</_>
        <_>
          8 12 8 6 3.</_></rects>
      <tilted>0</tilted></_>
    <_>
      <rects>
        <_>
          8 9 2 1 -1.</_>
        <_>
          9 9 1 1 2.</_></rects>
      <tilted>0</tilted></_>
    <_>
      <rects>
        <_>
          8 11 1 2 -1.</_>
        <_>
          8 12 1 1 2.</_></rects>
      <tilted>0</tilted></_>
    <_>
      <rects>
        <_>
          8 13 1 2 -1.</_>
        <_>
          8 14 1 1 2.</_></rects>
      <tilted>0</tilted></_>
    <_>
      <rects>
        <_>
          8 13 34 10 -1.</_>
        <_>
          8 13 17 5 2.</_>
        <_>
          25 18 17 5 2.</_></rects>
      <tilted>0</tilted></_>
    <_>
      <rects>
        <_>
          8 15 6 6 -1.</_>
        <_>
          11 15 3 6 2.</_></rects>
      <tilted>0</tilted></_>
    <_>
      <rects>
        <_>
          8 18 36 4 -1.</_>
        <_>
          8 18 18 2 2.</_>
        <_>
          26 20 18 2 2.</_></rects>
      <tilted>0</tilted></_>
    <_>
      <rects>
        <_>
          9 9 2 1 -1.</_>
        <_>
          10 9 1 1 2.</_></rects>
      <tilted>0</tilted></_>
    <_>
      <rects>
        <_>
          9 17 18 7 -1.</_>
        <_>
          18 17 9 7 2.</_></rects>
      <tilted>0</tilted></_>
    <_>
      <rects>
        <_>
          10 10 34 14 -1.</_>
        <_>
          10 10 17 7 2.</_>
        <_>
          27 17 17 7 2.</_></rects>
      <tilted>0</tilted></_>
    <_>
      <rects>
        <_>
          11 16 2 3 -1.</_>
        <_>
          12 16 1 3 2.</_></rects>
      <tilted>0</tilted></_>
    <_>
      <rects>
        <_>
          12 0 20 24 -1.</_>
        <_>
          12 8 20 8 3.</_></rects>
      <tilted>0</tilted></_>
    <_>
      <rects>
        <_>
          12 8 16 16 -1.</_>
        <_>
          12 8 8 8 2.</_>
        <_>
          20 16 8 8 2.</_></rects>
      <tilted>0</tilted></_>
    <_>
      <rects>
        <_>
          13 13 16 11 -1.</_>
        <_>
          21 13 8 11 2.</_></rects>
      <tilted>0</tilted></_>
    <_>
      <rects>
        <_>
          13 23 12 1 -1.</_>
        <_>
          17 23 4 1 3.</_></rects>
      <tilted>0</tilted></_>
    <_>
      <rects>
        <_>
          14 13 30 9 -1.</_>
        <_>
          14 16 30 3 3.</_></rects>
      <tilted>0</tilted></_>
    <_>
      <rects>
        <_>
          14 19 12 5 -1.</_>
        <_>
          18 19 4 5 3.</_></rects>
      <tilted>0</tilted></_>
    <_>
      <rects>
        <_>
          15 16 24 8 -1.</_>
        <_>
          15 16 12 4 2.</_>
        <_>
          27 20 12 4 2.</_></rects>
      <tilted>0</tilted></_>
    <_>
      <rects>
        <_>
          15 18 9 6 -1.</_>
        <_>
          18 18 3 6 3.</_></rects>
      <tilted>0</tilted></_>
    <_>
      <rects>
        <_>
          16 0 4 10 -1.</_>
        <_>
          18 0 2 10 2.</_></rects>
      <tilted>0</tilted></_>
    <_>
      <rects>
        <_>
          16 3 12 9 -1.</_>
        <_>
          22 3 6 9 2.</_></rects>
      <tilted>0</tilted></_>
    <_>
      <rects>
        <_>
          16 4 10 18 -1.</_>
        <_>
          21 4 5 18 2.</_></rects>
      <tilted>0</tilted></_>
    <_>
      <rects>
        <_>
          16 15 24 9 -1.</_>
        <_>
          28 15 12 9 2.</_></rects>
      <tilted>0</tilted></_>
    <_>
      <rects>
        <_>
          16 16 18 7 -1.</_>
        <_>
          22 16 6 7 3.</_></rects>
      <tilted>0</tilted></_>
    <_>
      <rects>
        <_>
          16 21 2 1 -1.</_>
        <_>
          17 21 1 1 2.</_></rects>
      <tilted>0</tilted></_>
    <_>
      <rects>
        <_>
          17 1 3 19 -1.</_>
        <_>
          18 1 1 19 3.</_></rects>
      <tilted>0</tilted></_>
    <_>
      <rects>
        <_>
          17 12 23 12 -1.</_>
        <_>
          17 16 23 4 3.</_></rects>
      <tilted>0</tilted></_>
    <_>
      <rects>
        <_>
          17 19 15 5 -1.</_>
        <_>
          22 19 5 5 3.</_></rects>
      <tilted>0</tilted></_>
    <_>
      <rects>
        <_>
          18 0 26 16 -1.</_>
        <_>
          31 0 13 16 2.</_></rects>
      <tilted>0</tilted></_>
    <_>
      <rects>
        <_>
          18 0 14 4 -1.</_>
        <_>
          18 2 14 2 2.</_></rects>
      <tilted>0</tilted></_>
    <_>
      <rects>
        <_>
          18 1 8 8 -1.</_>
        <_>
          18 1 4 4 2.</_>
        <_>
          22 5 4 4 2.</_></rects>
      <tilted>0</tilted></_>
    <_>
      <rects>
        <_>
          18 3 6 3 -1.</_>
        <_>
          20 3 2 3 3.</_></rects>
      <tilted>0</tilted></_>
    <_>
      <rects>
        <_>
          18 4 4 5 -1.</_>
        <_>
          20 4 2 5 2.</_></rects>
      <tilted>0</tilted></_>
    <_>
      <rects>
        <_>
          18 5 6 3 -1.</_>
        <_>
          18 6 6 1 3.</_></rects>
      <tilted>0</tilted></_>
    <_>
      <rects>
        <_>
          19 0 7 18 -1.</_>
        <_>
          19 9 7 9 2.</_></rects>
      <tilted>0</tilted></_>
    <_>
      <rects>
        <_>
          19 12 25 12 -1.</_>
        <_>
          19 16 25 4 3.</_></rects>
      <tilted>0</tilted></_>
    <_>
      <rects>
        <_>
          20 1 16 23 -1.</_>
        <_>
          28 1 8 23 2.</_></rects>
      <tilted>0</tilted></_>
    <_>
      <rects>
        <_>
          20 4 2 6 -1.</_>
        <_>
          20 7 2 3 2.</_></rects>
      <tilted>0</tilted></_>
    <_>
      <rects>
        <_>
          20 21 21 2 -1.</_>
        <_>
          20 22 21 1 2.</_></rects>
      <tilted>0</tilted></_>
    <_>
      <rects>
        <_>
          20 22 4 1 -1.</_>
        <_>
          22 22 2 1 2.</_></rects>
      <tilted>0</tilted></_>
    <_>
      <rects>
        <_>
          20 23 2 1 -1.</_>
        <_>
          21 23 1 1 2.</_></rects>
      <tilted>0</tilted></_>
    <_>
      <rects>
        <_>
          21 9 14 12 -1.</_>
        <_>
          21 15 14 6 2.</_></rects>
      <tilted>0</tilted></_>
    <_>
      <rects>
        <_>
          21 22 2 1 -1.</_>
        <_>
          22 22 1 1 2.</_></rects>
      <tilted>0</tilted></_>
    <_>
      <rects>
        <_>
          21 23 2 1 -1.</_>
        <_>
          22 23 1 1 2.</_></rects>
      <tilted>0</tilted></_>
    <_>
      <rects>
        <_>
          22 10 16 14 -1.</_>
        <_>
          22 10 8 7 2.</_>
        <_>
          30 17 8 7 2.</_></rects>
      <tilted>0</tilted></_>
    <_>
      <rects>
        <_>
          22 21 17 2 -1.</_>
        <_>
          22 22 17 1 2.</_></rects>
      <tilted>0</tilted></_>
    <_>
      <rects>
        <_>
          23 0 2 10 -1.</_>
        <_>
          23 5 2 5 2.</_></rects>
      <tilted>0</tilted></_>
    <_>
      <rects>
        <_>
          23 0 14 18 -1.</_>
        <_>
          23 0 7 9 2.</_>
        <_>
          30 9 7 9 2.</_></rects>
      <tilted>0</tilted></_>
    <_>
      <rects>
        <_>
          23 21 18 3 -1.</_>
        <_>
          32 21 9 3 2.</_></rects>
      <tilted>0</tilted></_>
    <_>
      <rects>
        <_>
          23 22 20 2 -1.</_>
        <_>
          33 22 10 2 2.</_></rects>
      <tilted>0</tilted></_>
    <_>
      <rects>
        <_>
          23 22 19 2 -1.</_>
        <_>
          23 23 19 1 2.</_></rects>
      <tilted>0</tilted></_>
    <_>
      <rects>
        <_>
          24 22 19 2 -1.</_>
        <_>
          24 23 19 1 2.</_></rects>
      <tilted>0</tilted></_>
    <_>
      <rects>
        <_>
          25 1 10 10 -1.</_>
        <_>
          25 1 5 5 2.</_>
        <_>
          30 6 5 5 2.</_></rects>
      <tilted>0</tilted></_>
    <_>
      <rects>
        <_>
          27 3 12 15 -1.</_>
        <_>
          27 8 12 5 3.</_></rects>
      <tilted>0</tilted></_>
    <_>
      <rects>
        <_>
          28 6 14 7 -1.</_>
        <_>
          35 6 7 7 2.</_></rects>
      <tilted>0</tilted></_>
    <_>
      <rects>
        <_>
          28 10 10 12 -1.</_>
        <_>
          28 16 10 6 2.</_></rects>
      <tilted>0</tilted></_>
    <_>
      <rects>
        <_>
          28 16 6 5 -1.</_>
        <_>
          30 16 2 5 3.</_></rects>
      <tilted>0</tilted></_>
    <_>
      <rects>
        <_>
          28 21 2 1 -1.</_>
        <_>
          29 21 1 1 2.</_></rects>
      <tilted>0</tilted></_>
    <_>
      <rects>
        <_>
          28 22 2 1 -1.</_>
        <_>
          29 22 1 1 2.</_></rects>
      <tilted>0</tilted></_>
    <_>
      <rects>
        <_>
          29 0 8 21 -1.</_>
        <_>
          29 7 8 7 3.</_></rects>
      <tilted>0</tilted></_>
    <_>
      <rects>
        <_>
          29 14 15 2 -1.</_>
        <_>
          29 15 15 1 2.</_></rects>
      <tilted>0</tilted></_>
    <_>
      <rects>
        <_>
          29 23 2 1 -1.</_>
        <_>
          30 23 1 1 2.</_></rects>
      <tilted>0</tilted></_>
    <_>
      <rects>
        <_>
          30 2 14 21 -1.</_>
        <_>
          37 2 7 21 2.</_></rects>
      <tilted>0</tilted></_>
    <_>
      <rects>
        <_>
          30 3 4 1 -1.</_>
        <_>
          32 3 2 1 2.</_></rects>
      <tilted>0</tilted></_>
    <_>
      <rects>
        <_>
          30 5 14 19 -1.</_>
        <_>
          37 5 7 19 2.</_></rects>
      <tilted>0</tilted></_>
    <_>
      <rects>
        <_>
          30 6 14 13 -1.</_>
        <_>
          37 6 7 13 2.</_></rects>
      <tilted>0</tilted></_>
    <_>
      <rects>
        <_>
          30 8 6 4 -1.</_>
        <_>
          30 10 6 2 2.</_></rects>
      <tilted>0</tilted></_>
    <_>
      <rects>
        <_>
          30 9 5 6 -1.</_>
        <_>
          30 12 5 3 2.</_></rects>
      <tilted>0</tilted></_>
    <_>
      <rects>
        <_>
          30 10 14 1 -1.</_>
        <_>
          37 10 7 1 2.</_></rects>
      <tilted>0</tilted></_>
    <_>
      <rects>
        <_>
          30 21 6 2 -1.</_>
        <_>
          32 21 2 2 3.</_></rects>
      <tilted>0</tilted></_>
    <_>
      <rects>
        <_>
          30 22 2 1 -1.</_>
        <_>
          31 22 1 1 2.</_></rects>
      <tilted>0</tilted></_>
    <_>
      <rects>
        <_>
          30 22 1 2 -1.</_>
        <_>
          30 23 1 1 2.</_></rects>
      <tilted>0</tilted></_>
    <_>
      <rects>
        <_>
          30 23 2 1 -1.</_>
        <_>
          31 23 1 1 2.</_></rects>
      <tilted>0</tilted></_>
    <_>
      <rects>
        <_>
          31 6 12 8 -1.</_>
        <_>
          37 6 6 8 2.</_></rects>
      <tilted>0</tilted></_>
    <_>
      <rects>
        <_>
          31 7 12 7 -1.</_>
        <_>
          35 7 4 7 3.</_></rects>
      <tilted>0</tilted></_>
    <_>
      <rects>
        <_>
          31 8 12 11 -1.</_>
        <_>
          35 8 4 11 3.</_></rects>
      <tilted>0</tilted></_>
    <_>
      <rects>
        <_>
          31 9 13 14 -1.</_>
        <_>
          31 16 13 7 2.</_></rects>
      <tilted>0</tilted></_>
    <_>
      <rects>
        <_>
          31 16 13 2 -1.</_>
        <_>
          31 17 13 1 2.</_></rects>
      <tilted>0</tilted></_>
    <_>
      <rects>
        <_>
          31 17 12 4 -1.</_>
        <_>
          31 19 12 2 2.</_></rects>
      <tilted>0</tilted></_>
    <_>
      <rects>
        <_>
          31 21 1 2 -1.</_>
        <_>
          31 22 1 1 2.</_></rects>
      <tilted>0</tilted></_>
    <_>
      <rects>
        <_>
          31 22 2 1 -1.</_>
        <_>
          32 22 1 1 2.</_></rects>
      <tilted>0</tilted></_>
    <_>
      <rects>
        <_>
          31 22 1 2 -1.</_>
        <_>
          31 23 1 1 2.</_></rects>
      <tilted>0</tilted></_>
    <_>
      <rects>
        <_>
          32 0 2 1 -1.</_>
        <_>
          33 0 1 1 2.</_></rects>
      <tilted>0</tilted></_>
    <_>
      <rects>
        <_>
          32 2 12 8 -1.</_>
        <_>
          36 2 4 8 3.</_></rects>
      <tilted>0</tilted></_>
    <_>
      <rects>
        <_>
          32 6 12 12 -1.</_>
        <_>
          38 6 6 12 2.</_></rects>
      <tilted>0</tilted></_>
    <_>
      <rects>
        <_>
          32 8 6 9 -1.</_>
        <_>
          34 8 2 9 3.</_></rects>
      <tilted>0</tilted></_>
    <_>
      <rects>
        <_>
          32 10 9 9 -1.</_>
        <_>
          35 10 3 9 3.</_></rects>
      <tilted>0</tilted></_>
    <_>
      <rects>
        <_>
          32 12 6 8 -1.</_>
        <_>
          34 12 2 8 3.</_></rects>
      <tilted>0</tilted></_>
    <_>
      <rects>
        <_>
          32 14 12 6 -1.</_>
        <_>
          32 17 12 3 2.</_></rects>
      <tilted>0</tilted></_>
    <_>
      <rects>
        <_>
          32 22 1 2 -1.</_>
        <_>
          32 23 1 1 2.</_></rects>
      <tilted>0</tilted></_>
    <_>
      <rects>
        <_>
          32 22 6 1 -1.</_>
        <_>
          34 22 2 1 3.</_></rects>
      <tilted>0</tilted></_>
    <_>
      <rects>
        <_>
          32 23 12 1 -1.</_>
        <_>
          36 23 4 1 3.</_></rects>
      <tilted>0</tilted></_>
    <_>
      <rects>
        <_>
          33 5 2 1 -1.</_>
        <_>
          34 5 1 1 2.</_></rects>
      <tilted>0</tilted></_>
    <_>
      <rects>
        <_>
          33 11 6 9 -1.</_>
        <_>
          35 11 2 9 3.</_></rects>
      <tilted>0</tilted></_>
    <_>
      <rects>
        <_>
          33 21 9 2 -1.</_>
        <_>
          36 21 3 2 3.</_></rects>
      <tilted>0</tilted></_>
    <_>
      <rects>
        <_>
          34 0 10 10 -1.</_>
        <_>
          34 0 5 5 2.</_>
        <_>
          39 5 5 5 2.</_></rects>
      <tilted>0</tilted></_>
    <_>
      <rects>
        <_>
          34 2 10 14 -1.</_>
        <_>
          34 2 5 7 2.</_>
        <_>
          39 9 5 7 2.</_></rects>
      <tilted>0</tilted></_>
    <_>
      <rects>
        <_>
          34 7 8 12 -1.</_>
        <_>
          38 7 4 12 2.</_></rects>
      <tilted>0</tilted></_>
    <_>
      <rects>
        <_>
          34 7 10 9 -1.</_>
        <_>
          39 7 5 9 2.</_></rects>
      <tilted>0</tilted></_>
    <_>
      <rects>
        <_>
          34 8 1 2 -1.</_>
        <_>
          34 9 1 1 2.</_></rects>
      <tilted>0</tilted></_>
    <_>
      <rects>
        <_>
          34 8 6 10 -1.</_>
        <_>
          36 8 2 10 3.</_></rects>
      <tilted>0</tilted></_>
    <_>
      <rects>
        <_>
          34 9 9 9 -1.</_>
        <_>
          37 9 3 9 3.</_></rects>
      <tilted>0</tilted></_>
    <_>
      <rects>
        <_>
          34 10 2 2 -1.</_>
        <_>
          34 11 2 1 2.</_></rects>
      <tilted>0</tilted></_>
    <_>
      <rects>
        <_>
          34 12 8 7 -1.</_>
        <_>
          38 12 4 7 2.</_></rects>
      <tilted>0</tilted></_>
    <_>
      <rects>
        <_>
          34 15 1 2 -1.</_>
        <_>
          34 16 1 1 2.</_></rects>
      <tilted>0</tilted></_>
    <_>
      <rects>
        <_>
          34 16 1 2 -1.</_>
        <_>
          34 17 1 1 2.</_></rects>
      <tilted>0</tilted></_>
    <_>
      <rects>
        <_>
          35 4 9 20 -1.</_>
        <_>
          35 14 9 10 2.</_></rects>
      <tilted>0</tilted></_>
    <_>
      <rects>
        <_>
          35 6 8 11 -1.</_>
        <_>
          39 6 4 11 2.</_></rects>
      <tilted>0</tilted></_>
    <_>
      <rects>
        <_>
          35 9 9 5 -1.</_>
        <_>
          38 9 3 5 3.</_></rects>
      <tilted>0</tilted></_>
    <_>
      <rects>
        <_>
          35 9 9 7 -1.</_>
        <_>
          38 9 3 7 3.</_></rects>
      <tilted>0</tilted></_>
    <_>
      <rects>
        <_>
          35 17 1 2 -1.</_>
        <_>
          35 18 1 1 2.</_></rects>
      <tilted>0</tilted></_>
    <_>
      <rects>
        <_>
          35 22 6 1 -1.</_>
        <_>
          37 22 2 1 3.</_></rects>
      <tilted>0</tilted></_>
    <_>
      <rects>
        <_>
          36 12 6 3 -1.</_>
        <_>
          39 12 3 3 2.</_></rects>
      <tilted>0</tilted></_>
    <_>
      <rects>
        <_>
          36 12 8 10 -1.</_>
        <_>
          36 12 4 5 2.</_>
        <_>
          40 17 4 5 2.</_></rects>
      <tilted>0</tilted></_>
    <_>
      <rects>
        <_>
          36 22 1 2 -1.</_>
        <_>
          36 23 1 1 2.</_></rects>
      <tilted>0</tilted></_>
    <_>
      <rects>
        <_>
          37 15 1 2 -1.</_>
        <_>
          37 16 1 1 2.</_></rects>
      <tilted>0</tilted></_>
    <_>
      <rects>
        <_>
          37 22 3 2 -1.</_>
        <_>
          37 23 3 1 2.</_></rects>
      <tilted>0</tilted></_>
    <_>
      <rects>
        <_>
          38 7 6 9 -1.</_>
        <_>
          41 7 3 9 2.</_></rects>
      <tilted>0</tilted></_>
    <_>
      <rects>
        <_>
          38 7 6 12 -1.</_>
        <_>
          41 7 3 12 2.</_></rects>
      <tilted>0</tilted></_>
    <_>
      <rects>
        <_>
          40 20 4 3 -1.</_>
        <_>
          42 20 2 3 2.</_></rects>
      <tilted>0</tilted></_>
    <_>
      <rects>
        <_>
          40 21 3 3 -1.</_>
        <_>
          40 22 3 1 3.</_></rects>
      <tilted>0</tilted></_>
    <_>
      <rects>
        <_>
          41 16 3 6 -1.</_>
        <_>
          41 18 3 2 3.</_></rects>
      <tilted>0</tilted></_>
    <_>
      <rects>
        <_>
          41 17 2 1 -1.</_>
        <_>
          42 17 1 1 2.</_></rects>
      <tilted>0</tilted></_>
    <_>
      <rects>
        <_>
          41 19 3 5 -1.</_>
        <_>
          42 19 1 5 3.</_></rects>
      <tilted>0</tilted></_>
    <_>
      <rects>
        <_>
          41 21 3 1 -1.</_>
        <_>
          42 21 1 1 3.</_></rects>
      <tilted>0</tilted></_>
    <_>
      <rects>
        <_>
          42 10 2 1 -1.</_>
        <_>
          43 10 1 1 2.</_></rects>
      <tilted>0</tilted></_>
    <_>
      <rects>
        <_>
          42 13 2 1 -1.</_>
        <_>
          43 13 1 1 2.</_></rects>
      <tilted>0</tilted></_>
    <_>
      <rects>
        <_>
          42 14 2 6 -1.</_>
        <_>
          42 16 2 2 3.</_></rects>
      <tilted>0</tilted></_>
    <_>
      <rects>
        <_>
          42 15 2 1 -1.</_>
        <_>
          43 15 1 1 2.</_></rects>
      <tilted>0</tilted></_>
    <_>
      <rects>
        <_>
          42 15 2 9 -1.</_>
        <_>
          42 18 2 3 3.</_></rects>
      <tilted>0</tilted></_>
    <_>
      <rects>
        <_>
          43 12 1 9 -1.</_>
        <_>
          43 15 1 3 3.</_></rects>
      <tilted>0</tilted></_>
    <_>
      <rects>
        <_>
          43 15 1 9 -1.</_>
        <_>
          43 18 1 3 3.</_></rects>
      <tilted>0</tilted></_></features></cascade>
</opencv_storage>
